{
  "hidden.weight": [
    [
      -0.22393105924129486,
      -0.14638447761535645,
      -0.28826436400413513,
      -0.4820311665534973,
      0.0077942367643117905,
      -0.08095360547304153
    ],
    [
      0.3710797131061554,
      -0.4828270673751831,
      -0.21744102239608765,
      0.8694732785224915,
      0.19204768538475037,
      0.0208889190107584
    ],
    [
      -0.14919178187847137,
      -0.3729260265827179,
      0.37705904245376587,
      -0.506653904914856,
      -0.15677210688591003,
      -2.105370283126831
    ],
    [
      -0.1403104066848755,
      0.019429966807365417,
      -0.5652894973754883,
      -1.412928819656372,
      0.031215576454997063,
      0.010727392509579659
    ],
    [
      -0.32317766547203064,
      -1.3974432945251465,
      -0.058761224150657654,
      0.5665431618690491,
      0.1618015319108963,
      -0.06766286492347717
    ],
    [
      -0.33322325348854065,
      0.37885627150535583,
      -0.48382091522216797,
      0.2410302609205246,
      0.13673725724220276,
      0.13014543056488037
    ],
    [
      0.6628284454345703,
      -0.28353700041770935,
      0.008836910128593445,
      0.5584270358085632,
      0.13174279034137726,
      -0.07641088217496872
    ],
    [
      -0.3537549674510956,
      0.5374031662940979,
      0.060721877962350845,
      0.31322985887527466,
      0.09113054722547531,
      -0.10818073898553848
    ],
    [
      -1.318770408630371,
      0.28154614567756653,
      0.6759965419769287,
      0.513285219669342,
      0.5153123736381531,
      0.08846495300531387
    ],
    [
      -0.7527267932891846,
      0.24542799592018127,
      0.27635547518730164,
      0.5939269065856934,
      0.3948952257633209,
      -0.020331835374236107
    ],
    [
      -0.15741589665412903,
      -0.3063690662384033,
      -0.17174234986305237,
      -0.09813033044338226,
      -0.14052040874958038,
      -1.455378532409668
    ],
    [
      -0.3063885569572449,
      0.03990261256694794,
      0.10049586743116379,
      -1.0955106019973755,
      0.4329923093318939,
      -0.01584143564105034
    ],
    [
      0.6706423759460449,
      0.49318966269493103,
      -0.10858085751533508,
      0.22584405541419983,
      -0.03534257411956787,
      0.023188753053545952
    ],
    [
      -0.592505931854248,
      -1.236331820487976,
      0.15031391382217407,
      0.202474907040596,
      0.17921923100948334,
      0.11843495070934296
    ],
    [
      -0.49281153082847595,
      0.3517000079154968,
      0.48214486241340637,
      -0.8838054537773132,
      -0.6663806438446045,
      0.10371009260416031
    ],
    [
      0.5100722908973694,
      0.3989633321762085,
      0.18677763640880585,
      -0.22560465335845947,
      -0.36928990483283997,
      0.2821890711784363
    ],
    [
      0.22455590963363647,
      0.26580774784088135,
      -0.22873026132583618,
      -0.490921288728714,
      0.058158863335847855,
      -1.9093471765518188
    ],
    [
      0.12853221595287323,
      -0.10260973870754242,
      0.0056032040156424046,
      -0.4671028256416321,
      -0.07286355644464493,
      -1.776204228401184
    ],
    [
      1.0481858253479004,
      0.2673461437225342,
      0.06984097510576248,
      -0.17549538612365723,
      0.18809427320957184,
      -0.013907705433666706
    ],
    [
      -0.26919370889663696,
      -0.3951113224029541,
      -0.2934629023075104,
      -0.13277168571949005,
      0.26949378848075867,
      -1.8445011377334595
    ],
    [
      0.09346525371074677,
      -0.17687173187732697,
      -0.19542858004570007,
      -0.20242765545845032,
      -0.8065801858901978,
      -0.06426884233951569
    ],
    [
      0.6761598587036133,
      0.4073132574558258,
      0.04775889590382576,
      0.011634781956672668,
      0.16465863585472107,
      0.22894823551177979
    ],
    [
      0.04102817177772522,
      -0.1142939031124115,
      0.7717093825340271,
      0.5520161390304565,
      -0.08618974685668945,
      -0.2586183547973633
    ],
    [
      -0.4931715428829193,
      0.1040586307644844,
      -0.06499578058719635,
      0.616737425327301,
      -0.5627447366714478,
      -1.03303062915802
    ],
    [
      -0.6342425346374512,
      -0.8229957818984985,
      0.22849811613559723,
      -0.3263285160064697,
      -0.07944630086421967,
      0.010480689816176891
    ],
    [
      0.6045584678649902,
      0.5813473463058472,
      0.26307883858680725,
      -0.12230516970157623,
      -0.03290688991546631,
      -0.0696432814002037
    ],
    [
      -0.3174089193344116,
      -0.6798531413078308,
      0.5010110139846802,
      -0.16018176078796387,
      -0.10455530136823654,
      -0.8237423300743103
    ],
    [
      0.312197744846344,
      -0.15360577404499054,
      0.12758281826972961,
      0.6554813981056213,
      0.011345406994223595,
      0.09351371973752975
    ],
    [
      -0.5672512054443359,
      -1.6687088012695312,
      0.004265159368515015,
      0.08697295188903809,
      -0.038976263254880905,
      0.006469635292887688
    ],
    [
      0.3474554419517517,
      -0.1491866558790207,
      -0.21404153108596802,
      0.40822818875312805,
      -0.3921213448047638,
      -0.8129995465278625
    ],
    [
      0.34918856620788574,
      0.11641868203878403,
      0.5196821093559265,
      0.655268132686615,
      0.16226111352443695,
      -0.28857702016830444
    ],
    [
      -0.13235293328762054,
      0.00631635170429945,
      -0.493211030960083,
      -1.2948917150497437,
      0.01638401299715042,
      -0.010024642571806908
    ],
    [
      -0.627367377281189,
      -0.8738855719566345,
      -0.12233683466911316,
      0.021986346691846848,
      0.19357255101203918,
      -0.05831727758049965
    ],
    [
      -0.06353629380464554,
      -0.3412593603134155,
      -0.3766241669654846,
      -0.019000351428985596,
      0.039158571511507034,
      0.1922069638967514
    ],
    [
      0.5028989911079407,
      0.09758240729570389,
      0.0288114994764328,
      0.10379033535718918,
      -1.490342140197754,
      -0.0072824000380933285
    ],
    [
      0.17882974445819855,
      -0.2168157547712326,
      0.32057419419288635,
      0.6416654586791992,
      -0.016012044623494148,
      -0.040257252752780914
    ],
    [
      -0.03231802582740784,
      -0.13527655601501465,
      -0.2359248846769333,
      -0.4823775887489319,
      -0.12107519060373306,
      -1.9306570291519165
    ],
    [
      -0.58568274974823,
      0.4458838999271393,
      0.5580549836158752,
      0.744300365447998,
      -0.0691683441400528,
      0.2613110840320587
    ],
    [
      0.13907839357852936,
      -0.08039187639951706,
      0.04677813872694969,
      -1.186363935470581,
      0.06432879716157913,
      -0.21420711278915405
    ],
    [
      -0.36555299162864685,
      0.16622260212898254,
      0.2759092450141907,
      -0.18585866689682007,
      0.7113801836967468,
      0.0012064233887940645
    ],
    [
      -0.8120270371437073,
      0.2819119691848755,
      0.24910439550876617,
      0.12123198807239532,
      -0.01579367369413376,
      -0.8305301070213318
    ],
    [
      0.6745696663856506,
      0.09390803426504135,
      -0.13236485421657562,
      -0.21838189661502838,
      -0.2108602672815323,
      -2.1661698818206787
    ],
    [
      -0.024041499942541122,
      -0.8923519253730774,
      0.16605089604854584,
      0.6548780202865601,
      -0.4487138092517853,
      0.05881904065608978
    ],
    [
      0.027974845841526985,
      -0.06483463943004608,
      0.14492160081863403,
      -0.10713557153940201,
      0.21540714800357819,
      0.5732036232948303
    ],
    [
      0.4419954717159271,
      0.23185545206069946,
      0.1287686675786972,
      0.41975346207618713,
      0.29944679141044617,
      0.273443341255188
    ],
    [
      0.0663701519370079,
      0.12544751167297363,
      -1.5923705101013184,
      -0.11612813919782639,
      -0.09320142865180969,
      -1.2692947387695312
    ],
    [
      0.7096042037010193,
      -0.1929663121700287,
      0.09284382313489914,
      0.7752400636672974,
      -0.434396892786026,
      0.12339098751544952
    ],
    [
      0.11015364527702332,
      -0.15080001950263977,
      -0.03508481755852699,
      -1.1250232458114624,
      0.14640790224075317,
      0.298439085483551
    ],
    [
      0.06943827867507935,
      -2.574490547180176,
      0.017232349142432213,
      0.1007782593369484,
      0.06656002253293991,
      0.10498475283384323
    ],
    [
      -0.5128015875816345,
      0.363864541053772,
      -0.18118885159492493,
      0.551018238067627,
      -0.21588966250419617,
      0.08093603700399399
    ]
  ],
  "hidden.bias": [
    0.6667947769165039,
    0.560312807559967,
    -0.09312746673822403,
    -1.4222294092178345,
    -0.0440133735537529,
    0.7622621059417725,
    0.6328014135360718,
    0.6270514130592346,
    -1.2491816282272339,
    -0.034572046250104904,
    0.2811351716518402,
    -0.6168901324272156,
    -0.17762123048305511,
    -0.3499417006969452,
    0.6654365062713623,
    0.6572180390357971,
    -0.41500216722488403,
    -0.3948194086551666,
    0.37892383337020874,
    0.16835205256938934,
    0.8162755966186523,
    -1.4435985088348389,
    0.7003562450408936,
    0.543190598487854,
    -0.4692738950252533,
    0.3147353529930115,
    0.5500012636184692,
    -0.4836985766887665,
    -1.0873650312423706,
    0.13976693153381348,
    -0.6311274766921997,
    -1.146921992301941,
    0.11461099237203598,
    0.6034462451934814,
    0.7989632487297058,
    0.823581874370575,
    -0.5381186008453369,
    0.0637984573841095,
    0.2492942214012146,
    -0.7592036724090576,
    -0.4546586871147156,
    0.11281326413154602,
    -0.036386191844940186,
    -0.10553335398435593,
    -1.1307317018508911,
    -0.7840907573699951,
    0.06996973603963852,
    0.05727442726492882,
    -0.9741040468215942,
    -0.6712374687194824
  ],
  "output.weight": [
    [
      0.07426311820745468,
      0.4672642648220062,
      0.6858002543449402,
      2.3328490257263184,
      -0.04371194541454315,
      -0.2917633354663849,
      0.10542778670787811,
      -0.43278104066848755,
      -0.27643123269081116,
      -0.5279995203018188,
      0.32592666149139404,
      0.6756559610366821,
      0.08712240308523178,
      0.4813721776008606,
      -0.44314044713974,
      -0.005095368251204491,
      0.6128578186035156,
      1.147595763206482,
      0.4275932013988495,
      0.5774357914924622,
      -0.19377106428146362,
      0.8023777008056641,
      0.49861496686935425,
      -0.17958714067935944,
      0.4362570345401764,
      0.22518616914749146,
      0.1758701503276825,
      -0.19279026985168457,
      1.118941068649292,
      0.15007328987121582,
      0.20213119685649872,
      2.1308016777038574,
      0.4547673463821411,
      0.23071415722370148,
      -0.6861838102340698,
      0.5241748690605164,
      0.9893679022789001,
      -0.45808082818984985,
      -0.0752265453338623,
      -0.5704994797706604,
      -0.9180511236190796,
      0.836021900177002,
      0.0876823365688324,
      0.21333633363246918,
      0.48808109760284424,
      1.1994423866271973,
      0.19079817831516266,
      -0.07523094117641449,
      1.5610237121582031,
      -0.22508107125759125
    ],
    [
      0.2612479627132416,
      0.5123847126960754,
      0.24897682666778564,
      1.9771522283554077,
      0.17422927916049957,
      -0.3626374304294586,
      0.6904066205024719,
      -0.39423975348472595,
      -0.13459190726280212,
      -0.37716397643089294,
      0.16457499563694,
      1.0036334991455078,
      0.4035302400588989,
      0.5335236191749573,
      -0.1357182115316391,
      0.45363977551460266,
      -0.06066078320145607,
      0.3616088330745697,
      0.5832865238189697,
      -0.0055140545591712,
      0.39746198058128357,
      0.6388442516326904,
      0.14949707686901093,
      -0.4424867630004883,
      0.22530797123908997,
      0.20890749990940094,
      0.3811926245689392,
      -0.6343302726745605,
      1.4938257932662964,
      0.26177987456321716,
      0.21437203884124756,
      2.456066131591797,
      0.13035105168819427,
      0.6661587357521057,
      -0.08075078576803207,
      0.46933627128601074,
      0.306091845035553,
      -0.42732739448547363,
      -0.06693550199270248,
      -0.5584386587142944,
      -0.4510749280452728,
      0.27658697962760925,
      0.21050375699996948,
      -0.29521533846855164,
      0.5659664869308472,
      0.42778342962265015,
      -0.10691111534833908,
      0.4822925925254822,
      1.9871257543563843,
      -0.4524415135383606
    ],
    [
      0.37133097648620605,
      0.4450254738330841,
      0.11448532342910767,
      1.5379424095153809,
      0.7991044521331787,
      -0.07235313206911087,
      0.18491926789283752,
      -0.24206621944904327,
      -1.8648788928985596,
      -0.047462232410907745,
      0.13539716601371765,
      0.7207220792770386,
      0.32382893562316895,
      0.8220636248588562,
      0.36279770731925964,
      0.016817394644021988,
      0.17177818715572357,
      1.063412070274353,
      -0.15588179230690002,
      0.13208748400211334,
      0.2606908679008484,
      0.42811891436576843,
      0.5041515827178955,
      -0.16885623335838318,
      0.7721786499023438,
      0.3782062232494354,
      0.11673035472631454,
      0.6654883623123169,
      2.0802650451660156,
      0.319327175617218,
      0.5378524661064148,
      2.341369390487671,
      0.40525326132774353,
      -0.007004656363278627,
      0.07630804181098938,
      0.37999871373176575,
      -0.2459178864955902,
      0.015463416464626789,
      0.9849483966827393,
      0.6649458408355713,
      -0.3948172926902771,
      -0.5360919237136841,
      0.5892898440361023,
      0.1625516712665558,
      0.8100267648696899,
      -0.28648096323013306,
      0.4395289719104767,
      0.7233943939208984,
      1.0961482524871826,
      -0.44380903244018555
    ]
  ],
  "output.bias": [
    -0.1481236219406128,
    0.13347989320755005,
    0.08411335200071335
  ],
  "means": [
    41.848590417063285,
    3.7072809904785817,
    1.5777402075119683e+23,
    0.3164695784267658,
    0.0020630788596519008,
    0.0017933140248477901
  ],
  "stds": [
    17.349575956918493,
    4.2308564944058356,
    3.162961933824283e+23,
    0.3525759056826645,
    0.009018977567304656,
    0.00888987497479342
  ]
}
